svm_type epsilon_svr
kernel_type rbf
gamma 0.05
nr_class 2
total_sv 445
rho -1.54178
probA 8.1819
SV
-1024 1:-0.509219 2:0.816517 
1024 1:0.522955 2:-0.443214 
-1024 1:0.00553789 2:0.92769 
-1024 1:-0.227122 2:0.924631 
-1024 1:-0.401937 2:0.606091 
1024 1:-0.317912 2:0.866503 
1024 1:-0.107346 2:-0.189947 
1024 1:0.186449 2:0.143475 
-1024 1:-0.128954 2:0.175726 
-1024 1:0.82602 2:-0.400975 
-1024 1:-0.123799 2:0.498717 
1024 1:0.287082 2:0.3712 
1024 1:0.0662072 2:-0.0129184 
-1024 1:0.225986 2:-0.0347584 
-1024 1:0.621773 2:-0.716801 
-1024 1:0.347616 2:0.0208728 
1024 1:0.350373 2:-0.371457 
-1024 1:0.24771 2:0.071609 
-1024 1:-0.433261 2:0.815046 
-1024 1:0.0721965 2:0.0992914 
651.5441142324703 1:0.711127 2:-1 
1024 1:-0.288558 2:0.508507 
1024 1:0.770204 2:-0.5203 
-1024 1:-0.1735 2:0.903985 
1024 1:0.762701 2:-0.169914 
-1024 1:0.230946 2:-0.0926792 
1024 1:-0.267076 2:0.678805 
-1024 1:-0.439183 2:0.866345 
-1024 1:0.000694057 2:0.184006 
1024 1:-0.325493 2:0.558079 
1024 1:0.529585 2:-0.333935 
-1024 1:0.831388 2:-0.583541 
1024 1:0.599223 2:-0.32832 
-1024 1:-0.155279 2:0.166598 
-1024 1:0.719368 2:-0.549957 
1024 1:-0.23183 2:0.566813 
-1024 1:0.544679 2:0.238967 
-1024 1:0.366312 2:0.63632 
-1024 1:0.520945 2:0.284107 
-1024 1:0.267775 2:0.297164 
-1024 1:0.378242 2:0.203517 
1024 1:0.479807 2:-0.416489 
-1024 1:0.120373 2:0.0824846 
1024 1:0.0384061 2:0.62124 
-1024 1:0.487262 2:0.60467 
-1024 1:0.635809 2:-0.184095 
1024 1:-0.456432 2:0.840054 
-1024 1:0.514646 2:-0.46011 
1024 1:0.114801 2:0.602746 
1024 1:0.524324 2:0.143169 
1024 1:0.106783 2:0.046157 
-1024 1:0.34979 2:0.611855 
-1024 1:0.529653 2:-0.362545 
1024 1:-0.301759 2:0.769165 
-1024 1:0.612464 2:-0.0257974 
-1024 1:0.584469 2:-0.363049 
1024 1:0.58242 2:0.0436602 
1024 1:-0.299313 2:0.544588 
-1024 1:0.228937 2:0.0880309 
1024 1:0.0900187 2:0.927453 
-1024 1:0.630082 2:-0.38482 
-1024 1:0.330065 2:-0.603387 
1024 1:0.0939598 2:0.55274 
-1024 1:0.265979 2:-0.126441 
1024 1:0.141583 2:-0.128474 
-1024 1:-0.135283 2:0.505161 
1024 1:0.0586551 2:-0.306095 
1024 1:0.434018 2:0.20027 
1024 1:0.848666 2:-0.118783 
-1024 1:-0.606824 2:0.695208 
1024 1:0.225355 2:0.579139 
1024 1:-0.100376 2:0.208758 
-1024 1:0.038144 2:0.639705 
1024 1:0.784464 2:-0.169045 
1024 1:0.220569 2:0.659147 
-1024 1:-0.623501 2:0.880803 
1024 1:0.633179 2:-0.240368 
-1024 1:0.0399204 2:-0.303569 
1024 1:-0.209163 2:0.515129 
-1024 1:0.295634 2:-0.0533021 
1024 1:-0.160871 2:0.967472 
1024 1:-0.326901 2:0.536071 
1024 1:0.451113 2:-0.307694 
-1024 1:-0.433562 2:0.487575 
-1024 1:-0.543223 2:0.843084 
-1024 1:0.179673 2:-0.043226 
-1024 1:0.518965 2:-0.508764 
1024 1:0.114189 2:0.526143 
-1024 1:0.717941 2:-0.188852 
1024 1:-0.256631 2:0.757155 
-1024 1:-0.215978 2:0.446589 
1024 1:0.296828 2:-0.669134 
-1024 1:0.488601 2:0.619079 
-1024 1:0.46778 2:0.620322 
1024 1:-0.275385 2:0.566596 
1024 1:-0.673424 2:0.859269 
-1024 1:0.432145 2:-0.261635 
1024 1:0.215434 2:0.335159 
1024 1:0.721533 2:-0.160015 
1024 1:-0.673609 2:0.8893 
-1024 1:0.21657 2:-0.172647 
-1024 1:0.420225 2:-0.186918 
-1024 1:0.185808 2:0.0727637 
-1024 1:-0.448948 2:0.640928 
-1024 1:0.150106 2:0.120648 
1024 1:0.00890625 2:0.363039 
-1024 1:0.697517 2:-0.164446 
-1024 1:0.153668 2:0.163578 
1024 1:-0.000373723 2:-0.544529 
1024 1:0.0877861 2:0.0201326 
-1024 1:-0.441629 2:0.887978 
-1024 1:0.548572 2:-0.27862 
1024 1:-0.343626 2:0.534413 
1024 1:0.0221758 2:0.139655 
-1024 1:0.0641008 2:-0.284216 
-1024 1:0.265979 2:0.0391106 
1024 1:-0.0107894 2:0.119385 
-1024 1:0.431155 2:-0.542831 
1024 1:0.385114 2:0.262316 
-1024 1:0.29347 2:-0.20555 
1024 1:-0.138525 2:0.496714 
-1024 1:0.616745 2:-0.548614 
-1024 1:0.0658674 2:0.342107 
1024 1:0.493756 2:0.383616 
-1024 1:0.921809 2:-0.22814 
1024 1:-0.379445 2:0.629115 
1024 1:0.171286 2:-0.0185832 
-1024 1:-0.374728 2:0.961442 
-1024 1:0.57283 2:-0.189128 
1024 1:-0.150834 2:0.490111 
1024 1:-0.895765 2:0.950458 
-1024 1:-0.430854 2:0.865753 
1024 1:0.131148 2:-0.295821 
-1024 1:-0.946145 2:0.667831 
1024 1:0.195244 2:0.0282844 
1024 1:0.983284 2:-0.230361 
1024 1:-0.514879 2:0.886596 
1024 1:-0.282413 2:0.768978 
1024 1:0.208358 2:0.655081 
-1024 1:-0.0109059 2:0.322073 
1024 1:0.332084 2:-0.571718 
1024 1:-0.142786 2:0.142182 
-1024 1:-0.0659742 2:-0.0756257 
-1024 1:-0.000121339 2:-0.104423 
1024 1:0.091465 2:0.0722999 
-1024 1:-0.00426627 2:0.54441 
1024 1:-0.524925 2:0.860611 
1024 1:0.291499 2:0.665038 
1024 1:0.813993 2:-0.384484 
-1024 1:0.768486 2:-0.960199 
1024 1:0.520819 2:0.264922 
-1024 1:0.0538792 2:0.19429 
1024 1:0.221336 2:0.488216 
-1024 1:0.102453 2:-0.113118 
1024 1:-0.294877 2:0.734752 
1024 1:-0.591361 2:0.541765 
1024 1:0.266571 2:0.355381 
-1024 1:0.171607 2:0.634622 
1024 1:0.154513 2:0.593469 
-1024 1:0.493387 2:-0.481723 
-1024 1:-0.526032 2:0.767162 
-1024 1:0.494795 2:0.139211 
-1024 1:0.414109 2:-0.523666 
1024 1:0.430767 2:0.264685 
1024 1:0.498037 2:-0.328675 
-1024 1:-0.349887 2:1 
1024 1:-0.0311646 2:0.379194 
1024 1:-0.289334 2:0.728545 
-1024 1:0.0540636 2:0.539732 
-1024 1:0.571451 2:-0.154064 
1024 1:0.567646 2:-0.222061 
1024 1:-0.504783 2:0.833471 
1024 1:0.124071 2:-0.1935 
-1024 1:-0.396821 2:0.273912 
-1024 1:0.0172641 2:0.938072 
-1024 1:0.622249 2:-0.00267448 
1024 1:-0.25072 2:0.643258 
-1024 1:-0.0601694 2:0.126697 
-1024 1:0.481195 2:-0.272274 
-1024 1:0.802063 2:-0.640317 
-1024 1:-0.271599 2:0.960603 
1024 1:0.196874 2:0.572971 
1024 1:0.477332 2:-0.479561 
1024 1:0.275832 2:0.39608 
1024 1:-0.200796 2:0.100189 
1024 1:0.543728 2:0.197014 
1024 1:-0.158007 2:0.48943 
-1024 1:0.239022 2:0.365506 
1024 1:-0.416614 2:0.489805 
-1024 1:0.568365 2:-0.340824 
1024 1:0.403956 2:-0.263629 
-1024 1:0.0165943 2:0.933138 
-1024 1:-0.0846992 2:0.983213 
367.9011699586621 1:0.398034 2:0.710653 
1024 1:-0.662844 2:0.605193 
-1024 1:0.608358 2:-0.603683 
1024 1:-0.471468 2:0.589126 
1024 1:-0.244983 2:0.639192 
1024 1:-0.475283 2:0.852341 
-1024 1:0.737617 2:-0.194813 
1024 1:0.138292 2:0.142616 
-1024 1:0.0114107 2:0.0317484 
1024 1:-0.670978 2:0.858835 
-1024 1:0.873206 2:-0.278807 
-1024 1:-0.0491907 2:0.975841 
-1024 1:0.328483 2:0.607216 
-1024 1:-0.387259 2:0.598541 
1024 1:0.746393 2:-0.151715 
1024 1:0.719873 2:-0.334853 
-1024 1:0.547582 2:-0.232443 
-1024 1:0.269503 2:0.229186 
1024 1:0.663513 2:-0.542565 
-1024 1:0.00177154 2:0.268415 
1024 1:0.290693 2:0.270498 
1024 1:-0.357041 2:0.137237 
1024 1:0.96057 2:-0.918344 
-995.7971639416172 1:-0.779698 2:-0.162788 
1024 1:0.566899 2:-0.14984 
1024 1:0.504375 2:0.608568 
-1024 1:-0.742617 2:0.906502 
1024 1:-0.518558 2:0.294756 
1024 1:-0.401839 2:0.463228 
-1024 1:-0.109578 2:0.523044 
-1024 1:0.758226 2:0.360601 
-694.2693780054482 1:-0.859199 2:0.938132 
-1024 1:0.0152741 2:0.14757 
1024 1:0.137797 2:0.604917 
1024 1:0.632276 2:-0.137178 
-1024 1:0.0289999 2:-0.0532725 
1024 1:0.550494 2:-0.437115 
1024 1:0.346131 2:0.636231 
1024 1:-0.568122 2:0.882293 
-1024 1:0.340782 2:-0.198573 
1024 1:0.920615 2:-0.381178 
1024 1:-0.059684 2:0.0896297 
-1024 1:-0.141253 2:0.70407 
1024 1:-0.558065 2:0.688882 
-1024 1:-0.356003 2:0.272837 
-1024 1:0.630131 2:-0.386557 
1024 1:-0.348441 2:0.549266 
-1024 1:0.437202 2:0.100061 
-1024 1:-0.809673 2:0.327728 
1024 1:0.741073 2:0.0571708 
-1024 1:0.252923 2:-0.456221 
-1024 1:0.221831 2:-0.167239 
1024 1:0.697566 2:-0.253642 
-1024 1:-0.0376392 2:0.232088 
1024 1:-0.00296552 2:0.115792 
-1024 1:-0.0799039 2:0.288874 
1024 1:0.645652 2:0.0464728 
1024 1:0.65237 2:-0.0311168 
-1024 1:-0.235285 2:0.222426 
1024 1:-0.00151916 2:0.132441 
1024 1:0.406256 2:-0.76278 
-1024 1:-0.118111 2:0.44504 
1024 1:0.68019 2:-0.173121 
1024 1:-0.126246 2:0.483341 
1024 1:-0.625471 2:0.90061 
1024 1:-0.67226 2:0.890553 
-1024 1:0.0248841 2:0.152396 
1024 1:0.24473 2:0.647827 
-1024 1:-0.504356 2:0.744651 
1024 1:0.34415 2:-0.148054 
1024 1:0.834814 2:-0.174315 
-1024 1:0.362535 2:-0.48269 
1024 1:0.6938 2:-0.0167673 
-1024 1:0.218657 2:0.0785568 
1024 1:0.166811 2:-0.330846 
-1024 1:0.321475 2:0.0111914 
-1024 1:0.17548 2:-0.430779 
-1024 1:-0.73488 2:0.887849 
-1024 1:0.172539 2:-0.415621 
1024 1:-0.167112 2:0.804417 
1024 1:0.32495 2:-0.369789 
1024 1:-0.436348 2:0.572221 
-1024 1:0.206688 2:0.128059 
1024 1:0.658806 2:-0.692425 
1024 1:0.660757 2:-0.175904 
1024 1:0.418312 2:-0.473472 
1024 1:0.131536 2:0.124556 
-1024 1:-0.394608 2:0.789792 
-1024 1:0.571888 2:-0.467452 
-1024 1:0.0592763 2:0.936562 
1024 1:-0.262038 2:0.721952 
1024 1:-0.0218264 2:0.134326 
1024 1:-0.264203 2:0.713643 
1024 1:-0.320669 2:0.776074 
1024 1:0.223384 2:0.290157 
-1024 1:0.891766 2:-0.23269 
-1024 1:0.70471 2:-0.546108 
1024 1:0.507618 2:-0.593775 
-1024 1:-0.218861 2:0.91566 
-1024 1:-0.344665 2:0.510451 
1024 1:-0.333094 2:0.513639 
-1024 1:0.970956 2:-0.223936 
-1024 1:-0.679365 2:0.856318 
1024 1:0.717621 2:-0.491394 
-1024 1:0.25566 2:-0.582297 
-1024 1:0.668707 2:-0.799236 
1024 1:0.311583 2:0.118072 
1024 1:-0.591302 2:0.655495 
-1024 1:0.248079 2:-0.378494 
1024 1:0.286005 2:0.114786 
1024 1:0.586983 2:0.0540423 
1024 1:0.18709 2:0.00712538 
1024 1:-0.295207 2:0.628503 
-1024 1:0.109093 2:0.520981 
1024 1:0.316922 2:-0.725752 
1024 1:0.50123 2:-0.214797 
1024 1:-0.203271 2:0.547085 
1024 1:0.228034 2:0.406127 
-1024 1:0.66529 2:0.00196392 
1024 1:-0.677822 2:0.907873 
1024 1:0.369214 2:0.0949491 
1024 1:0.035591 2:0.362447 
-1024 1:-0.291169 2:0.584784 
1024 1:0.197864 2:-0.303736 
-1024 1:0.663222 2:-0.231693 
-1024 1:-0.0247676 2:0.314533 
-1024 1:-0.146854 2:0.308661 
1024 1:0.390482 2:0.209014 
-1024 1:0.202912 2:0.0790107 
-1024 1:-0.497581 2:0.891017 
-1024 1:0.466003 2:-0.129125 
1024 1:0.389939 2:-0.239174 
-1024 1:-0.104482 2:0.497079 
-1024 1:0.263727 2:-0.592472 
-1024 1:0.0798748 2:0.321945 
1024 1:0.596603 2:-0.670141 
1024 1:0.530934 2:-0.409551 
-1024 1:-0.189672 2:0.413785 
1024 1:-0.225064 2:0.357937 
1024 1:0.681821 2:-0.115763 
1024 1:0.793297 2:-0.177582 
1024 1:0.20165 2:0.774899 
1024 1:0.304031 2:-0.212488 
1024 1:-0.157512 2:0.905189 
1024 1:-0.479943 2:0.856417 
1024 1:0.384988 2:0.274218 
1024 1:-0.557172 2:0.84787 
-1024 1:0.433718 2:0.0742736 
1024 1:0.410906 2:-0.0766718 
1024 1:-0.175742 2:0.96006 
-1024 1:-0.174024 2:0.473749 
-1024 1:0.451084 2:0.254115 
-1024 1:-0.141796 2:0.425114 
-1024 1:0.891912 2:-0.378069 
-1024 1:-0.711486 2:0.619523 
1024 1:0.540729 2:-0.198001 
1024 1:0.207193 2:0.147324 
-1024 1:-0.149329 2:-0.194122 
1024 1:0.229898 2:0.109042 
1024 1:-0.0368335 2:0.96462 
1024 1:0.274191 2:0.679358 
-1024 1:0.466256 2:0.158722 
1024 1:0.594729 2:0.269343 
-1024 1:-0.150241 2:0.0166292 
-1024 1:0.414769 2:-0.355785 
-1024 1:0.555726 2:0.215844 
-1024 1:0.296624 2:0.648695 
-1024 1:0.0735943 2:0.465676 
-1024 1:0.602136 2:0.185872 
-1024 1:-0.118781 2:0.510451 
-1024 1:-0.0230495 2:0.952313 
-1024 1:0.515286 2:-0.0122572 
1024 1:-0.490436 2:-0.250799 
-1024 1:-0.147426 2:0.915394 
-1024 1:-0.44823 2:0.576692 
1024 1:0.0818356 2:0.376727 
1024 1:0.242566 2:0.39455 
1024 1:0.208503 2:-0.335593 
-1024 1:0.618676 2:-0.533673 
1024 1:0.145873 2:0.0209419 
1024 1:0.082321 2:0.529577 
1024 1:0.125304 2:-0.265465 
1024 1:-0.511685 2:0.537502 
-1024 1:-0.350324 2:0.252033 
1024 1:0.861325 2:-0.166854 
1024 1:-0.220055 2:0.528699 
-1024 1:0.643109 2:0.233134 
-1024 1:-0.448133 2:0.873076 
-1024 1:-0.269153 2:0.547391 
-1024 1:0.791152 2:-0.619404 
-1024 1:0.00479045 2:0.943421 
1024 1:-0.272289 2:0.569704 
1024 1:0.891397 2:-0.605558 
-1024 1:0.433096 2:0.293029 
1024 1:-0.328153 2:0.461245 
-1024 1:-0.728823 2:0.912206 
-1024 1:0.0838159 2:0.924019 
-1024 1:0.297139 2:0.204248 
1024 1:0.875545 2:-0.374605 
1024 1:0.800646 2:-0.7741 
1024 1:0.945369 2:-0.408051 
-251.5740871069818 1:0.354372 2:-0.419075 
-1024 1:-0.250147 2:0.562816 
1024 1:0.624064 2:-0.644235 
1024 1:0.845648 2:-0.876964 
-1024 1:-0.364137 2:0.576267 
-1024 1:0.0913 2:0.0936069 
-101.8046551370835 1:0.800888 2:0.176111 
-1024 1:0.677259 2:-0.954376 
1024 1:0.511073 2:0.26655 
1024 1:-0.529362 2:0.885175 
-1024 1:-0.22222 2:0.527781 
-1024 1:0.566472 2:0.232246 
-1024 1:-0.756323 2:0.937105 
-1024 1:0.713389 2:-0.0906857 
-1024 1:0.0131288 2:0.929309 
1024 1:0.374922 2:-0.203024 
-1024 1:0.180139 2:0.502882 
-1024 1:0.921285 2:-0.239006 
1024 1:-0.401509 2:0.122434 
-1024 1:-0.678016 2:0.962764 
-1024 1:-0.469207 2:0.574945 
1024 1:0.731259 2:-0.13482 
-1024 1:0.920004 2:-0.365802 
1024 1:-0.429641 2:0.634484 
1024 1:-0.259184 2:0.699244 
-1024 1:-0.0434538 2:-0.207475 
1024 1:0.246837 2:0.113088 
1024 1:-0.21492 2:0.704721 
1024 1:-0.332298 2:0.537255 
-1024 1:-0.450297 2:0.857532 
1024 1:0.598583 2:0.245737 
1024 1:-0.0558691 2:-0.00354295 
-1024 1:0.589526 2:-0.242786 
-1024 1:-0.405946 2:0.645922 
-1024 1:-0.399947 2:0.691842 
1024 1:0.0578591 2:0.943362 
-1024 1:0.162162 2:0.132767 
1024 1:-0.058393 2:-0.560803 
-1024 1:0.894843 2:-0.102025 
-1024 1:0.579741 2:0.0378671 
-1024 1:0.776727 2:0.161002 
-1024 1:0.358226 2:0.176092 
-1024 1:-0.175169 2:0.67999 
1024 1:0.409887 2:0.275274 
-1024 1:0.0693523 2:0.561128 
1024 1:1 2:-0.857542 
-1024 1:-0.415507 2:0.591584 
-1024 1:-0.0560148 2:0.107315 
1024 1:0.626665 2:-0.0624507 
-1024 1:0.606028 2:0.00821096 
-1024 1:0.974897 2:-0.22061 
